digraph Tree {
node [shape=box, style="filled, rounded", color="black", fontname="helvetica"] ;
edge [fontname="helvetica"] ;
0 [label="petal length (cm) <= 2.45\ngini = 0.66\nsamples = 93\nvalue = [57, 54, 39]\nclass = setosa", fillcolor="#fefbf9"] ;
1 [label="gini = 0.0\nsamples = 29\nvalue = [57, 0, 0]\nclass = setosa", fillcolor="#e58139"] ;
0 -> 1 [labeldistance=2.5, labelangle=45, headlabel="True"] ;
2 [label="petal width (cm) <= 1.65\ngini = 0.49\nsamples = 64\nvalue = [0, 54, 39]\nclass = versicolor", fillcolor="#c8f8dc"] ;
0 -> 2 [labeldistance=2.5, labelangle=-45, headlabel="False"] ;
3 [label="petal length (cm) <= 5.0\ngini = 0.07\nsamples = 34\nvalue = [0, 53, 2]\nclass = versicolor", fillcolor="#40e686"] ;
2 -> 3 ;
4 [label="gini = 0.0\nsamples = 31\nvalue = [0, 52, 0]\nclass = versicolor", fillcolor="#39e581"] ;
3 -> 4 ;
5 [label="sepal length (cm) <= 6.15\ngini = 0.44\nsamples = 3\nvalue = [0, 1, 2]\nclass = virginica", fillcolor="#c09cf2"] ;
3 -> 5 ;
6 [label="gini = 0.0\nsamples = 1\nvalue = [0, 1, 0]\nclass = versicolor", fillcolor="#39e581"] ;
5 -> 6 ;
7 [label="gini = 0.0\nsamples = 2\nvalue = [0, 0, 2]\nclass = virginica", fillcolor="#8139e5"] ;
5 -> 7 ;
8 [label="petal length (cm) <= 4.85\ngini = 0.05\nsamples = 30\nvalue = [0, 1, 37]\nclass = virginica", fillcolor="#843ee6"] ;
2 -> 8 ;
9 [label="sepal width (cm) <= 3.1\ngini = 0.32\nsamples = 4\nvalue = [0, 1, 4]\nclass = virginica", fillcolor="#a06aec"] ;
8 -> 9 ;
10 [label="gini = 0.0\nsamples = 3\nvalue = [0, 0, 4]\nclass = virginica", fillcolor="#8139e5"] ;
9 -> 10 ;
11 [label="gini = 0.0\nsamples = 1\nvalue = [0, 1, 0]\nclass = versicolor", fillcolor="#39e581"] ;
9 -> 11 ;
12 [label="gini = 0.0\nsamples = 26\nvalue = [0, 0, 33]\nclass = virginica", fillcolor="#8139e5"] ;
8 -> 12 ;
}